%YAML:1.0
---
SVMDetector: !!opencv-object-detector-hog
   winSize: [ 64, 64 ]
   blockSize: [ 16, 16 ]
   blockStride: [ 8, 8 ]
   cellSize: [ 4, 4 ]
   nbins: 4
   derivAperture: 1
   winSigma: 4.
   histogramNormType: 0
   L2HysThreshold: 2.0000000000000001e-01
   gammaCorrection: 0
   nlevels: 64
   signedGradient: 0
   SVMDetector: [ -1.71886652e-03, -2.97883339e-03, -2.00735085e-04,
       -1.15119747e-03, -4.41231113e-03, -1.13026723e-02,
       -1.42844697e-03, -1.98971014e-03, -1.87814480e-03,
       -4.84144129e-03, 8.46305629e-05, -3.58889042e-03, 1.90994833e-04,
       -8.78343883e-04, 1.09719823e-03, -1.16209150e-03, -4.05524811e-03,
       -3.48058436e-03, 2.88114953e-03, 1.83948211e-03, -5.34919556e-03,
       -3.96934757e-03, 7.61481840e-03, 2.17894581e-03, 1.10414682e-03,
       2.69161235e-03, 7.98338559e-03, -6.51953928e-03, 1.16391585e-03,
       6.89069508e-03, 5.84939821e-03, -7.09407963e-03, -8.63316702e-04,
       -1.19002489e-03, -6.83267834e-04, 3.66149377e-03, 4.85816598e-03,
       -2.18299311e-03, 5.22355130e-03, 1.05886767e-02, 1.54063087e-02,
       7.16050295e-03, 5.88523049e-04, 7.47271953e-03, 9.29166190e-03,
       1.81121118e-02, 9.76903015e-04, -9.35059786e-03, -2.47242791e-03,
       5.30234247e-04, -3.67199001e-03, -2.33262405e-03, 2.01007395e-04,
       3.89007316e-03, -1.33280107e-03, -2.50973972e-03, 1.46549176e-02,
       1.26914838e-02, -6.70427829e-03, -1.09971873e-03, 1.32930344e-02,
       1.09378714e-02, -3.37506854e-03, -4.43393737e-03, -7.93018495e-04,
       -2.60202494e-03, -1.44392601e-03, -2.08499213e-03,
       -4.25050966e-03, -3.67357861e-03, -1.66320195e-03,
       -3.58239235e-03, -6.97141280e-03, -9.74951684e-03,
       -3.09823896e-03, 1.62350410e-03, -1.55004696e-03, -3.28647834e-03,
       -1.60971482e-03, -1.52503478e-03, -1.71371025e-03,
       -2.02188641e-03, -4.30728495e-03, -1.03811221e-02,
       -1.06566511e-02, 2.19558366e-03, 5.84090361e-03, -1.69796105e-02,
       -6.91378445e-05, -6.23413268e-03, 1.63326378e-03, -4.28686384e-03,
       8.09004530e-03, 1.10477803e-03, -1.11907127e-03, -8.28293525e-03,
       5.00495953e-04, -6.11332303e-04, -7.02464534e-03, -5.88276843e-03,
       -1.44186651e-03, 1.36510152e-02, 3.66493454e-03, -2.09077839e-02,
       1.28436489e-02, 1.60237476e-02, 7.30699030e-05, -9.36770625e-03,
       2.40612794e-02, 1.41503392e-02, 2.03990916e-04, -7.05476059e-03,
       -4.38307226e-03, 1.00351885e-04, -5.52636292e-03, -4.67937486e-03,
       8.12328141e-03, 8.41786247e-03, -5.58104133e-03, -1.53989643e-02,
       1.65636186e-02, 1.21433400e-02, -2.80683627e-03, -1.14001567e-02,
       2.14259215e-02, 1.45636871e-02, -1.34600117e-03, -3.42814019e-03,
       -3.73067404e-03, -4.99189552e-03, -3.77334654e-03,
       -1.53188105e-03, -4.89325868e-03, -4.17397870e-03,
       -4.07728134e-03, -6.65517990e-03, -7.42129399e-04, 2.35297208e-04,
       -5.80217456e-04, -1.21418936e-02, -1.26347563e-03,
       -7.69633707e-03, -2.97235232e-03, -2.72151665e-03,
       -5.19182486e-03, -1.15772225e-02, -6.07540132e-03,
       -5.32174716e-03, 4.50382801e-03, 4.35055420e-03, -4.26703459e-03,
       -2.25487426e-02, 1.27372462e-02, -3.89761338e-03, -6.91541471e-03,
       -8.84490833e-03, 7.62366084e-03, -1.06784534e-02, -9.93827730e-03,
       1.04521960e-03, 1.32621201e-02, -3.54687963e-03, -7.70796509e-03,
       -1.13621298e-02, 1.36382524e-02, 1.16230492e-02, -6.46133581e-03,
       -1.95832811e-02, 1.94255728e-02, -3.19897011e-03, -9.00318474e-03,
       -8.36291537e-03, 1.08243097e-02, -1.27188955e-02, -1.08183054e-02,
       -3.30882729e-03, 2.46676803e-03, -1.69829256e-03, -5.98035008e-03,
       -7.51919160e-03, 1.66564360e-02, 2.55696243e-03, -7.90197961e-03,
       -1.05688022e-02, 8.96605663e-03, -9.60670877e-03, -7.85731245e-03,
       -4.73165303e-04, 8.87119677e-03, -9.72691551e-03, -3.11195944e-03,
       8.40039924e-03, 6.84695551e-04, -2.01668753e-03, -6.07702008e-04,
       -2.70844903e-03, -5.33527171e-04, -5.88147948e-03,
       -3.37650604e-03, -2.55476753e-03, -6.43308554e-03,
       -3.80424480e-03, -4.05350421e-03, -3.39010241e-03,
       -1.65083294e-03, -3.09727900e-03, -5.30422479e-03,
       -4.48223716e-03, 9.90505051e-03, -6.80516614e-03, -2.48516886e-03,
       -7.79914670e-04, 3.52640823e-03, -1.10141747e-02, -1.10150957e-02,
       5.44822961e-03, -6.97464030e-03, -6.79433672e-03, -8.34405702e-03,
       3.23207327e-03, -3.81141086e-03, -7.82998651e-03, -7.51462951e-03,
       4.71211085e-03, 1.31345205e-02, -7.87291862e-03, -3.81097710e-03,
       -8.11085943e-03, 9.41828638e-03, -9.97392647e-03, -1.19920215e-02,
       3.39026516e-03, 2.52504228e-03, -2.94710160e-03, -7.98516162e-03,
       5.98938763e-03, -1.24024868e-03, -9.45169013e-03, -8.11871234e-03,
       1.35778626e-02, 1.01470230e-02, -5.33652911e-03, -2.31406465e-03,
       1.20445888e-03, -8.15348933e-04, -1.03268353e-02, -5.64756617e-03,
       2.80854700e-04, 3.53701692e-03, -5.17590344e-03, -2.06231116e-03,
       2.75693275e-03, -4.86614386e-04, -3.52574349e-03, -9.73755319e-04,
       7.33817229e-03, -4.48321458e-03, -2.82002171e-03, -2.29063001e-03,
       -2.93629337e-03, -3.05849127e-03, -1.46108062e-03,
       -8.53203144e-03, -1.05696302e-02, -1.69714727e-03,
       -8.11512303e-03, -8.67825560e-03, -4.05120291e-03,
       -2.07579098e-04, -3.26711102e-03, -3.22507764e-03,
       -3.32375406e-03, -5.93104260e-03, -5.57826599e-03,
       -5.01410710e-03, 2.35193828e-03, -6.85403636e-03, -7.20989658e-03,
       -1.34446053e-02, -3.97202466e-03, -1.16566475e-02,
       -1.09294998e-02, -6.89177355e-03, -1.98578276e-03,
       -1.10508194e-02, -5.32236602e-03, -1.21544799e-05, 7.32632214e-03,
       2.79794307e-03, -3.82436300e-03, -5.25007956e-03, 1.41356364e-02,
       -6.42210152e-03, -1.19897556e-02, -7.02822441e-03, 1.35368481e-02,
       -1.05910357e-02, 8.79661005e-04, -6.82219677e-03, 9.69873089e-03,
       -1.00940894e-02, -7.27599999e-03, -1.03556109e-03, 1.21840071e-02,
       3.32264975e-03, -1.97293842e-03, -2.83310539e-04, 7.09328521e-03,
       -3.81944049e-03, -4.48190141e-03, 2.53651827e-03, 6.17338344e-03,
       -6.25068089e-03, -2.88230047e-04, 2.76031019e-03, 8.53747316e-03,
       -5.22304280e-03, -6.44197175e-03, -9.66280350e-04, 8.92879814e-03,
       7.25484861e-04, -3.56024248e-03, -1.64507807e-03, -5.93006436e-04,
       -7.30173779e-04, -7.05942418e-03, -6.32752478e-03,
       -3.49826738e-03, 1.45509583e-03, -1.42630655e-02, -7.85460789e-03,
       -7.84670643e-04, 5.06044133e-03, -2.51365686e-03, 2.05506556e-04,
       8.24586459e-05, -3.44383973e-03, -3.84846423e-03, -3.79252480e-03,
       8.78398679e-03, -8.24711565e-03, -1.07183829e-02, 7.50696636e-04,
       2.98866769e-03, -5.37980581e-03, -1.04954876e-02, -3.30304960e-03,
       -4.95638046e-03, -1.10807260e-02, -1.47266397e-02, 1.79519563e-03,
       2.11964734e-03, -2.74165743e-03, 7.61279254e-04, -6.49312977e-03,
       1.82500370e-02, -3.71700269e-03, -1.12236310e-02, 8.24396324e-04,
       8.17074999e-03, -5.60752349e-03, -7.74358725e-03, -2.54381425e-03,
       4.84293420e-03, -8.48405622e-03, -1.25496676e-02, -3.42684635e-03,
       -1.97227276e-03, 9.80919809e-04, -9.60831996e-04, 6.15203381e-03,
       1.70018543e-02, -2.24097585e-03, -8.95671081e-03, 7.50611862e-03,
       1.38322022e-02, -4.12133755e-03, -5.45279181e-04, 5.00933267e-03,
       1.26243159e-02, -1.34319020e-03, -1.38554769e-03, 3.33368173e-03,
       4.10663430e-03, 4.41325083e-03, -5.05676260e-03, -1.97452516e-03,
       5.16676868e-04, 4.68382658e-03, -3.15684685e-03, 6.19700819e-04,
       4.52368008e-03, 1.55950931e-03, -8.26251600e-03, -2.66710384e-04,
       3.94447427e-03, 3.09593556e-03, -5.17965108e-03, -1.48935569e-03,
       7.89296813e-04, 1.54262438e-04, -4.46834834e-03, -7.43957877e-04,
       3.22827953e-04, -4.88005253e-03, -1.13793323e-02, 4.04923456e-03,
       7.16182170e-03, -1.02136368e-02, -1.01314280e-02, 6.89327298e-03,
       5.56091638e-03, -8.72389227e-03, -1.13872029e-02, 9.82973492e-04,
       1.46507449e-03, -6.37953577e-04, -4.75264853e-03, 7.25252973e-03,
       1.43665373e-02, -4.62926738e-03, -1.23610562e-02, 9.73414443e-03,
       6.24413090e-03, -6.98527507e-03, -1.07754031e-02, 2.27283733e-03,
       1.22374780e-02, -7.90132117e-03, -8.82924255e-03, 8.72773351e-04,
       4.12646588e-03, 1.88414205e-03, 9.02058673e-04, 1.18330326e-02,
       1.63948517e-02, 3.74334450e-05, -5.31920092e-03, 1.30115710e-02,
       1.97782386e-02, -7.73630943e-03, -7.94568472e-03, 2.71671917e-03,
       8.31641909e-03, -5.88187529e-03, -2.55457964e-03, 1.89525145e-03,
       1.62168848e-03, -2.50751455e-03, -1.95510546e-03, -2.00351514e-03,
       -8.76340200e-04, -4.34760796e-03, -4.16182401e-03,
       -1.33910635e-03, 1.10980950e-03, 1.46562303e-03, -3.91071429e-03,
       -4.17680806e-03, 1.44767540e-03, -2.07200949e-03, -1.37129531e-03,
       7.31629902e-04, -2.40659062e-03, -1.16735864e-02, -5.52596105e-03,
       -6.42645499e-03, -6.34583225e-03, -9.81112383e-03, 8.02742259e-04,
       -3.30692506e-03, -1.38505949e-02, 5.47341118e-03, 1.02026649e-02,
       -6.41320879e-03, -6.20847195e-03, 6.99919276e-03, 4.75339545e-03,
       -6.56022457e-03, -8.54074582e-03, -1.02501363e-02,
       -9.64070298e-03, -1.30836363e-03, 8.75568774e-04, -4.57967678e-03,
       2.18965625e-03, -5.66444942e-04, 3.29462811e-04, 1.26529923e-02,
       8.29679146e-03, 1.74845487e-03, 3.60903074e-03, 2.00300068e-02,
       1.99493635e-02, -6.30058860e-03, 3.08753573e-03, -2.73919315e-03,
       -2.46687070e-03, -1.51226728e-03, -9.35770397e-04, 3.55994119e-03,
       1.64238140e-02, -4.41915309e-03, 4.98104887e-03, 7.94585794e-03,
       1.41029274e-02, -3.82624479e-04, 1.03444653e-02, 1.34742493e-02,
       1.07674832e-02, -1.67091683e-04, 8.08901794e-04, -1.89021858e-03,
       -1.86892680e-03, -2.87539675e-03, -1.35912909e-03,
       -2.42559938e-03, 1.73228036e-03, -2.03465996e-03, -8.35225452e-03,
       1.01625975e-02, 1.90609484e-03, -4.48933337e-03, -9.35665518e-03,
       8.75927135e-03, 5.46587980e-04, -2.12362432e-03, -3.99019569e-03,
       -4.18744283e-03, 6.50856365e-03, -8.96244217e-03, -1.04626957e-02,
       1.09596772e-03, 6.44465326e-04, -9.90584958e-03, -2.10789330e-02,
       9.94809810e-03, 4.45200503e-03, -6.76829321e-03, -1.95318125e-02,
       1.40099591e-02, 2.26597162e-03, -2.65171006e-03, -1.41155748e-02,
       1.71397219e-03, 5.89279737e-03, -7.32489768e-03, -6.58609997e-03,
       1.26015292e-02, 1.47942528e-02, -1.53702823e-02, -9.09388531e-03,
       9.48076602e-03, 1.52596999e-02, -4.03556693e-03, -1.61084700e-02,
       1.13222059e-02, 3.61751276e-03, 2.54843896e-03, -1.09844645e-02,
       -2.42392230e-03, 3.95026477e-03, -2.37241480e-03, -2.48397235e-03,
       2.35644425e-03, 8.21901113e-03, -7.79219158e-03, -4.90147062e-03,
       4.47441172e-03, 9.71632078e-03, 1.45687407e-03, -9.48395394e-03,
       6.11193525e-03, 1.16114169e-02, 1.48044131e-03, -6.78529544e-03,
       1.77097023e-02, 9.29083209e-03, -5.03188372e-03, -3.76750319e-03,
       1.99079253e-02, 6.43166853e-03, -9.05575324e-03, -4.33715899e-03,
       2.38163564e-02, -8.05852842e-03, -8.57718941e-03, -2.05271365e-03,
       9.80312284e-03, -8.36851262e-03, -5.39999735e-03, 3.50180618e-03,
       1.87298357e-02, 5.52482298e-03, -1.19255260e-02, -1.18021276e-02,
       1.36139179e-02, 8.20779987e-03, -2.05565859e-02, -1.88849848e-02,
       1.15643349e-02, -1.68784894e-02, -2.27545630e-02, -7.20286276e-03,
       -7.23443693e-04, -1.63902622e-02, -1.03957709e-02, 1.45568897e-03,
       1.44360503e-02, 4.96984599e-03, -9.02239326e-03, -1.15973782e-02,
       5.93394879e-03, -8.03322904e-03, -1.42099736e-02, -2.02683806e-02,
       6.51156669e-03, -1.53685808e-02, -2.14939583e-02, -1.75172649e-02,
       6.17896533e-03, -1.38537055e-02, -1.20201893e-02, -5.69594465e-03,
       -5.99099696e-03, -6.66945009e-04, -5.80032915e-03,
       -7.35202013e-03, 3.39593785e-03, 5.94203221e-03, -8.41173809e-03,
       -1.14377467e-02, 1.09199621e-03, 6.45910332e-04, -1.08014653e-02,
       -1.18385833e-02, 8.98356643e-03, -3.18147778e-03, -5.79100801e-03,
       -9.57045890e-03, 1.77836884e-02, -3.97478556e-03, -3.61879729e-03,
       2.52576428e-03, 1.66015290e-02, -1.22305965e-02, -9.26738232e-03,
       1.71905868e-02, 1.24378726e-02, -1.06336055e-02, -7.24229356e-03,
       1.67717375e-02, 2.32437602e-03, -6.05892576e-03, -2.30504316e-03,
       2.01832410e-02, 1.21643217e-02, -1.31783690e-02, -9.29671619e-03,
       7.02847829e-05, 8.84573616e-04, -2.02416275e-02, -1.58965178e-02,
       4.15243581e-03, -3.28318635e-03, -1.67332273e-02, -1.05133681e-02,
       7.06506055e-03, -8.41646269e-03, -1.28668528e-02, -5.20675443e-03,
       1.21843424e-02, 4.92489384e-03, -1.23851309e-02, -9.46657080e-03,
       -7.61599652e-03, 2.64605740e-03, -1.97936557e-02, -1.37565937e-02,
       3.68687720e-03, -9.12243035e-03, -2.20304281e-02, -6.16819831e-03,
       7.96460547e-03, -4.30140132e-03, -1.20422654e-02, -3.16606555e-03,
       1.22605320e-02, 3.78286280e-03, -4.45552124e-03, -4.51414147e-03,
       -7.40842894e-03, 4.61313268e-03, -8.95594247e-03, -9.11157019e-03,
       -1.26139903e-02, -9.43012722e-03, -1.18074622e-02,
       -7.97053147e-03, -1.07131479e-02, -1.09208627e-02,
       -4.34002234e-03, -1.83995068e-03, -3.65681644e-03, 1.70055532e-03,
       -3.52167827e-03, -2.19435734e-03, 8.90065171e-03, -2.74227350e-03,
       -1.09055117e-02, -5.96553553e-03, 1.82315242e-02, -5.95402811e-03,
       -8.74502957e-03, -7.49401329e-03, 1.52420215e-02, -3.09792906e-03,
       -6.17196085e-03, 4.06022090e-03, 1.37334149e-02, -6.43079821e-03,
       -8.36748444e-03, -4.02662251e-03, 3.26481927e-03, -1.07296556e-02,
       -1.54798236e-02, -7.35836523e-03, 2.74138129e-03, -1.65997799e-02,
       -1.42522389e-02, -9.58943448e-04, -3.46449111e-03,
       -1.43580073e-02, -1.36195906e-02, 3.87965655e-03, 1.15628196e-02,
       2.35881144e-03, -1.03096087e-02, -2.16569426e-03, 1.18813571e-02,
       -2.93600513e-03, -1.71051212e-02, -4.73780837e-03, 2.82664201e-03,
       -1.72356702e-02, -1.35997143e-02, 4.12074896e-03, 1.01410011e-02,
       -1.70296859e-02, -1.14470236e-02, 2.45957798e-03, 4.59805503e-03,
       -6.72893366e-03, -5.20467199e-03, -2.90582958e-03,
       -5.02865994e-03, -1.53023824e-02, -7.50090834e-03, 6.65655767e-04,
       7.19946623e-03, -1.44629348e-02, -4.81621874e-03, 3.56593030e-03,
       6.04806002e-03, -9.83668398e-03, -2.97461706e-03, 2.47074873e-03,
       5.05114626e-03, -2.06082221e-03, -2.07227538e-03, -5.55225601e-03,
       2.67836102e-03, -4.48167278e-03, -7.51391891e-03, -2.90160580e-03,
       1.12552904e-02, -6.45928131e-03, -9.00782086e-03, 7.20293261e-04,
       5.34215430e-03, -3.99146602e-03, -3.77110578e-03, -4.98028414e-04,
       -2.39316327e-03, -8.61823186e-03, -5.01469430e-03,
       -5.65800024e-03, 8.44053738e-03, -1.43814627e-02, -1.84287988e-02,
       -4.88791615e-03, 9.46907152e-04, -1.47956321e-02, -1.11331940e-02,
       -4.01500100e-03, 2.56833131e-03, -8.66821408e-03, -8.58796667e-03,
       8.14439449e-03, 5.67081198e-03, -8.77265353e-03, -6.78505562e-03,
       4.54659760e-03, 1.69316176e-02, -1.54440934e-02, -2.08228640e-02,
       -4.90342174e-03, 1.20786736e-02, -8.05136189e-03, -2.06428561e-02,
       1.38561591e-03, 7.07351742e-03, -4.37672250e-03, -1.15201641e-02,
       1.14824176e-02, 7.74441846e-03, -6.44714013e-03, -2.69648223e-03,
       1.35442223e-02, 1.21143498e-02, -9.71684419e-03, -1.30638340e-02,
       5.53361094e-03, 8.92356876e-03, -6.76602172e-03, -1.38940625e-02,
       9.53525829e-04, 4.09638975e-03, -1.07554048e-02, -4.01893165e-03,
       8.97413399e-03, -4.37356392e-03, -6.69538334e-04, -2.10785028e-03,
       -8.59964814e-04, 1.08944497e-03, -5.43364929e-03, -7.89555721e-03,
       -4.19628061e-03, -2.12776079e-03, -1.33038815e-02,
       -9.51810367e-03, -5.37631055e-03, -5.48928697e-03,
       -7.68732699e-03, -3.27870483e-03, -1.47506560e-03,
       -5.05441707e-03, -1.10072689e-03, -1.02926698e-03, 6.44247420e-03,
       6.66547194e-03, -1.00087821e-02, -9.44939628e-03, 1.24469958e-02,
       1.17769372e-02, -1.82004720e-02, -2.07611956e-02, -5.72209805e-03,
       4.33352636e-03, -1.49910953e-02, -8.35857540e-03, -1.69027993e-03,
       -4.90000052e-03, 6.05546730e-03, -9.10637807e-03, 1.46780871e-02,
       1.59360953e-02, -3.53932776e-03, -1.64563674e-02, 1.39509039e-02,
       1.85185093e-02, -5.10378694e-03, -2.12947670e-02, 5.06762508e-03,
       1.46458065e-02, 1.92814728e-03, -7.30365934e-03, -2.83181178e-03,
       1.10739600e-02, -1.39525451e-03, -6.00913819e-03, 3.83524317e-03,
       5.65565983e-03, -2.98440084e-03, -5.76718431e-03, 2.04239469e-02,
       8.59063026e-03, 2.38494668e-03, -1.19937407e-02, 2.65379902e-03,
       3.40148411e-03, 8.84639856e-04, -5.26040606e-03, 4.98525507e-04,
       -7.58780574e-04, -1.09821595e-02, -7.24760909e-03,
       -1.50099338e-03, -5.41588571e-03, -1.52059449e-02,
       -3.32634663e-03, -7.59444898e-03, -1.08715687e-02,
       -1.05736665e-02, 5.56292851e-03, -5.13230404e-03, -1.04990751e-02,
       -3.52124078e-03, -1.71093992e-03, -5.28266234e-03,
       -6.17666449e-03, -8.77805986e-03, -7.80910719e-03,
       -9.11415555e-03, -1.17549933e-02, -1.25630833e-02, 7.24433083e-03,
       -9.90544353e-03, -1.42308082e-02, -7.20724836e-03, 8.58623162e-03,
       -1.10172872e-02, -1.08235329e-02, -2.38579605e-03, 6.59887260e-03,
       -9.67550278e-03, -9.76868626e-03, 8.01937096e-03, -7.32277660e-03,
       -1.06595904e-02, -3.37128364e-03, -7.24162383e-04, 9.05304309e-03,
       -5.90451388e-03, -8.77538044e-03, -4.75704996e-03, 1.39170047e-02,
       -3.66260391e-03, 7.04047095e-04, 1.87882176e-03, 2.72921147e-03,
       -4.39110352e-03, -1.05487916e-03, 7.61764217e-03, -2.82543316e-03,
       -2.07221275e-03, 3.85744474e-03, 7.13974424e-03, 1.10932980e-02,
       -2.19930080e-03, 6.96364231e-03, 3.41799366e-03, 1.33061837e-02,
       1.35765935e-03, 1.00414352e-02, 4.35274420e-03, 9.52327996e-03,
       2.95113330e-03, 4.46877908e-03, 5.57619613e-03, 1.63988359e-02,
       -1.19749526e-03, -5.81908971e-03, 1.09742042e-02, 1.92555431e-02,
       -8.02106224e-03, -1.35720205e-02, 4.81390674e-03, 1.12133631e-02,
       -6.51288731e-03, -1.58825163e-02, -4.01137536e-03,
       -2.75848433e-03, -2.99229845e-03, -8.61910451e-03, 2.95263599e-03,
       1.83263998e-02, 6.23763481e-04, -9.05769784e-03, -4.62573429e-04,
       1.31676747e-02, -1.03238663e-02, -2.24554688e-02, -1.00407973e-02,
       5.52324625e-03, -1.01501225e-02, -2.48356499e-02, -6.12048665e-03,
       7.54802488e-03, -7.64434086e-03, -1.63458325e-02, -4.20340197e-03,
       1.85895991e-02, 3.83883645e-03, -3.62057379e-03, -1.25855915e-02,
       1.31954886e-02, -6.52853539e-03, -1.83258597e-02, -1.83695257e-02,
       1.06608579e-02, -1.19437883e-02, -2.23873928e-02, -6.61669997e-03,
       1.04230503e-03, -7.34838005e-03, -1.07861040e-02, -3.78500856e-03,
       1.08164269e-02, 3.43300612e-03, -1.65273168e-03, -9.17285960e-03,
       5.87465381e-03, -1.06148946e-03, -6.67254766e-03, -1.67161077e-02,
       3.22977151e-03, -4.13417118e-03, -1.10392803e-02, -1.26078976e-02,
       5.53257111e-03, -2.25497596e-03, -4.81424201e-03, 2.32638996e-02,
       2.48772465e-02, -7.61094212e-04, -4.97653615e-03, 1.48564130e-02,
       1.45004718e-02, 3.88663262e-04, -4.79591591e-03, 1.23812435e-02,
       -4.44529019e-03, -5.05607855e-03, -4.19145823e-03, 1.00081535e-02,
       -1.79982511e-03, -2.70770094e-03, -3.74508440e-03, 1.38359498e-02,
       2.09387653e-02, 3.17188236e-03, -9.18603502e-03, 2.98660668e-03,
       2.17610504e-02, 2.44558859e-03, -1.07792644e-02, -3.05549381e-03,
       3.96377547e-03, -5.34364255e-03, -1.30308503e-02, -2.23257393e-03,
       -4.00033267e-03, -6.92707533e-03, -1.33064464e-02,
       -3.94205534e-04, 2.11690180e-02, 1.34241488e-03, -4.46762564e-03,
       -4.06284234e-04, 6.45116530e-03, -1.33762846e-03, -7.98960403e-03,
       -1.16790794e-02, -6.37252908e-03, -9.03767627e-03,
       -1.18587650e-02, -3.19815776e-03, -3.34739126e-03,
       -1.05986623e-02, -9.12416354e-03, -3.97100905e-03, 6.78978302e-03,
       -4.06223815e-04, -1.09236641e-03, -1.27161257e-02,
       -6.12048060e-03, -2.02119211e-03, -3.66432336e-03,
       -6.74944604e-03, -2.10053683e-03, -3.76235065e-03,
       -1.34594617e-02, 1.18671637e-03, -2.53513735e-03, -4.55527566e-03,
       -5.19648707e-03, 1.84217282e-02, -1.19399396e-04, -2.42670369e-03,
       -6.63646264e-04, 1.95323098e-02, -4.27259784e-03, -5.57283172e-03,
       1.18686613e-02, 1.56382695e-02, -8.12757295e-03, 4.22228500e-03,
       2.51910165e-02, 5.38091641e-03, -3.09618260e-03, 1.44447805e-02,
       2.85331085e-02, 9.33542941e-03, -4.87042125e-04, -5.69605595e-03,
       -6.76681753e-03, 4.90654027e-03, -7.13962642e-03, -1.04010636e-02,
       -8.28222279e-03, -3.98650346e-03, -9.43467394e-03,
       -2.13871337e-03, -5.41034038e-04, -1.26675833e-02,
       -4.59481915e-03, 9.50278807e-03, 6.67404477e-03, -6.29973784e-03,
       -5.83396666e-03, -5.96934278e-03, -4.12665866e-03,
       -5.92344208e-03, -2.88020889e-03, -1.19953342e-02,
       -1.58992447e-02, -8.17013253e-03, -9.44533665e-03,
       -1.03753759e-02, -1.47031834e-02, -5.57594653e-03,
       -5.32894023e-03, -8.12136382e-03, -7.12855067e-03,
       -5.10068436e-04, -1.37461745e-03, -2.84686149e-03,
       -3.06900893e-03, 6.77790400e-03, -5.72220888e-03, -8.22010264e-03,
       -7.71388086e-03, 6.77554170e-04, -6.65978948e-03, -1.10649802e-02,
       -8.87759775e-03, -5.22169285e-04, -5.38064400e-03,
       -7.84550235e-03, -6.22472307e-03, 4.90188459e-03, -3.37836915e-03,
       -2.26763339e-04, 9.15370695e-03, -1.68659128e-04, -5.93975931e-03,
       5.35150152e-03, 2.21488420e-02, -5.45863109e-03, -4.72952193e-03,
       1.40371034e-02, 2.50356533e-02, -3.79405124e-03, -2.44842446e-03,
       1.24933105e-02, 2.00238209e-02, -1.16289575e-02, -6.00651931e-03,
       -4.00392106e-03, -8.25782027e-03, -2.23897286e-02,
       -1.27049619e-02, -7.95386848e-04, 5.11411717e-03, -1.76688414e-02,
       -7.30364444e-03, 1.64297912e-02, 5.33117959e-03, -1.54912677e-02,
       2.18100683e-03, 2.23810319e-02, 1.48849357e-02, -7.26456940e-03,
       -5.10459580e-03, -6.62204437e-03, -7.31902616e-03,
       -1.44542772e-02, -1.03717307e-02, -1.28405076e-02,
       -1.85489226e-02, -1.83787514e-02, -7.71250715e-03,
       -3.75883910e-03, -2.67453324e-02, -1.51812863e-02, 3.82297696e-03,
       1.62571408e-02, -1.06011424e-02, -2.38043768e-03, -4.63636220e-03,
       -3.56216263e-03, -3.43071623e-03, -6.45505311e-03,
       -6.76250597e-03, -1.13111371e-02, -1.06437309e-02,
       -4.75484226e-03, -2.86978856e-03, -4.63221129e-03,
       -1.06618088e-02, -1.54311687e-03, -9.65664745e-04,
       -2.39872397e-03, -3.96522926e-03, -3.64845409e-03,
       -1.97030278e-03, 7.70319835e-04, 4.38210554e-03, -8.14673305e-03,
       -8.43038037e-03, -4.59940545e-03, 6.35125907e-03, -4.08801576e-03,
       -8.21308792e-03, 3.76341864e-03, 5.61084552e-03, -1.52372906e-03,
       -1.76366570e-03, 1.60082560e-02, 5.43567957e-03, -1.30904540e-02,
       -3.33525613e-03, 6.87701534e-03, 5.21145109e-03, -2.30213385e-02,
       -1.48326177e-02, 4.02745372e-03, 1.80820795e-03, -1.70321465e-02,
       -9.52364318e-03, 5.51303336e-03, 6.67637156e-04, -1.74047314e-02,
       1.28470326e-03, 2.07451619e-02, -2.90965592e-03, -1.51970619e-02,
       -4.27530194e-03, -2.72653473e-04, -1.12017533e-02,
       -2.36240998e-02, -1.11693265e-02, 1.22196497e-02, -6.85523311e-03,
       -1.41163347e-02, -5.52783720e-03, 1.07314726e-02, 3.64786433e-03,
       -1.41988974e-02, 1.91493006e-03, 1.69077292e-02, -6.15704060e-03,
       -5.10236854e-03, -2.92182271e-03, 3.01284948e-03, -3.50427534e-03,
       -8.17935821e-03, -6.03563245e-03, -1.02638744e-03,
       -5.93677396e-03, -1.25104142e-02, 2.89263017e-03, 1.42255463e-02,
       -4.16967738e-03, -9.70107689e-03, 8.72162450e-03, 9.33639798e-03,
       -5.65975113e-03, 1.19384727e-03, -5.90289058e-03, 7.43436904e-05,
       3.14502395e-03, -8.03506351e-04, -9.94653814e-03, 1.35497218e-02,
       7.19857682e-03, -2.07387470e-03, -1.22052496e-02, 7.34077417e-04,
       5.06566837e-03, -7.01004872e-04, -3.23786051e-03, 7.96469802e-04,
       1.95998629e-03, -5.36746066e-03, -6.33992394e-03, 4.66149626e-03,
       1.78956368e-03, -9.42007732e-03, -3.44118220e-03, 1.24007948e-02,
       1.34392618e-03, -9.55340918e-03, -8.69358703e-03, 6.02909504e-03,
       -1.37140811e-03, -4.14762320e-03, -9.94468667e-03,
       -2.79241567e-03, -6.88483566e-03, -5.04992530e-03, 1.63369812e-03,
       1.61680523e-02, 6.31943159e-03, -1.60442833e-02, 6.83692866e-04,
       1.50683131e-02, -7.06437370e-03, -1.11559900e-02, -1.76573556e-03,
       4.36788891e-03, -6.79808855e-03, -1.81523035e-03, -5.89969475e-03,
       -6.09008828e-03, -3.02613759e-03, -6.82392158e-03, 2.50605168e-03,
       1.92299765e-02, 1.23018213e-03, -1.37995249e-02, 5.81604522e-03,
       1.52884144e-02, -5.81839774e-03, -5.96274761e-03, -5.28461672e-03,
       3.49549437e-03, -2.69268220e-03, -5.82839875e-03, -2.25281669e-03,
       -1.88877631e-03, -1.12559740e-03, 9.90813482e-04, -3.35456338e-03,
       -3.00025870e-03, -1.86025794e-03, -1.50780170e-03, 6.15161657e-03,
       -6.71815267e-03, -5.68174059e-03, -7.61508057e-03, 7.97038153e-03,
       -6.43729605e-03, -2.01732130e-03, -3.95343220e-03, 1.91497221e-03,
       -2.74960580e-03, -2.02526385e-03, -1.02759141e-03,
       -5.55966375e-03, -2.30190763e-03, 1.08857418e-03, -6.54374203e-03,
       2.57520005e-03, -1.91144506e-03, -3.59931216e-03, -1.08394688e-02,
       8.17096978e-03, -5.74791944e-03, -9.43848118e-03, -4.00988897e-03,
       1.66122895e-03, -7.99508952e-03, -4.88689682e-03, -8.65631085e-03,
       -4.45896853e-03, 1.92609942e-03, -1.95796089e-03, -1.12651708e-02,
       3.81567492e-03, 6.74372818e-03, -7.85265118e-03, -1.01276264e-02,
       6.02708478e-03, 1.50125939e-03, -8.07367731e-03, -1.27206119e-02,
       -2.40502995e-03, 1.36648084e-03, -1.34425592e-02, -1.30266557e-03,
       -2.40338570e-03, 7.21079341e-05, -3.95232608e-04, -7.33090797e-03,
       2.64070486e-03, 1.54834101e-02, 3.41840624e-03, -7.82140344e-03,
       -3.17006814e-03, 9.08743218e-03, -4.98758303e-03, -4.38408880e-03,
       -1.21552846e-03, 3.07454239e-03, -3.02073522e-03, -3.55163915e-03,
       1.77204572e-02, 5.22632804e-03, -1.24747748e-03, -8.68483260e-03,
       1.19908415e-02, -1.00890454e-03, -7.66411936e-03, -1.05271395e-02,
       9.79080796e-03, -5.44825755e-03, -1.05740968e-02, -6.63784333e-03,
       4.92272293e-03, -2.48439680e-03, -4.11193958e-03, -7.23465998e-03,
       2.68575028e-02, 1.48816360e-02, -7.32067227e-03, -1.73554458e-02,
       1.16517339e-02, 5.53099578e-03, -1.62045676e-02, -2.16109287e-02,
       -5.04261907e-03, -5.58326952e-03, -1.74315926e-02,
       -1.98220350e-02, -9.61368496e-04, -5.23125054e-03,
       -9.77846980e-03, -9.78467334e-03, 1.84426904e-02, 1.70919076e-02,
       -9.86430421e-03, -2.21869498e-02, 4.39211866e-03, 9.68698133e-03,
       -1.58381816e-02, -2.61100549e-02, -8.40076338e-03, 5.32912463e-03,
       -1.74414087e-02, -1.60462894e-02, -9.05893371e-03,
       -7.61874579e-03, -1.53226880e-02, -4.48702136e-03, 5.18029509e-03,
       2.06850618e-02, 1.51009788e-03, -5.07681724e-03, -4.14469076e-04,
       1.02716638e-02, 9.36510973e-04, -1.38728591e-02, -6.75484678e-03,
       1.25191687e-02, -7.76806008e-03, 1.83260272e-04, -5.34772547e-03,
       -2.44246097e-03, -6.79670600e-03, 4.99828719e-03, 2.18392126e-02,
       3.39421979e-03, -6.01981010e-04, -1.56650716e-03, 8.93592648e-03,
       -2.29681958e-04, -1.06047397e-03, -8.65956396e-03,
       -3.36949294e-03, -4.11635730e-03, -5.90801239e-03,
       -9.03033419e-04, -1.49590557e-03, -3.86369438e-03,
       -2.44083558e-03, -2.51232833e-03, 1.38862310e-02, 9.37061571e-03,
       -6.05185167e-04, -1.35226175e-02, -1.34857011e-03, 4.49101906e-03,
       -4.99967486e-03, -6.70732232e-03, -6.29085535e-03,
       -6.45461213e-03, -1.53318411e-02, -3.13003571e-03,
       -5.46162436e-03, -4.10635909e-03, -6.36543334e-03,
       -7.36924214e-03, 1.05340797e-02, 2.20246818e-02, -2.37701065e-03,
       -3.08205816e-03, -7.52335240e-04, 9.75242874e-04, -9.22425650e-03,
       5.41976793e-03, 2.75779003e-03, -1.90841630e-02, -1.31910862e-02,
       5.79739641e-03, -9.83919296e-03, -1.14934910e-02, -4.05571889e-03,
       -3.47499154e-04, 8.88462365e-03, 2.16847695e-02, 7.68185564e-05,
       9.51594673e-03, 5.53340768e-04, -4.41763643e-03, -1.81328889e-03,
       1.45616652e-02, 4.62594762e-04, -1.40469093e-02, -1.72137213e-03,
       9.21928603e-03, -5.89873130e-03, -8.03270098e-03, -1.28888572e-03,
       1.86850398e-03, 3.94142140e-03, -3.49299225e-05, -4.87894460e-04,
       7.64098950e-03, 2.85837846e-03, -4.61717747e-04, 4.76102839e-04,
       -5.10041646e-05, 1.57787919e-03, -1.28328311e-03, 1.02505810e-03,
       -2.38613551e-03, -3.88800516e-03, -1.31197507e-03, 8.30179953e-04,
       3.73822264e-03, 7.64120137e-03, 4.64002555e-03, -1.83043571e-03,
       1.07779428e-02, 2.54781335e-03, -2.62467773e-04, -3.23599321e-04,
       -8.87044298e-04, -4.97357873e-03, -7.02282181e-03,
       -1.33292959e-03, -5.22861606e-04, -9.07491520e-03,
       -8.63426086e-03, -5.56222303e-03, 1.01495124e-02, 1.02106668e-02,
       2.72779085e-04, -9.05320107e-04, 1.51021946e-02, -6.78930338e-03,
       -9.96655039e-03, 1.82385358e-03, 6.35323999e-03, 1.54079380e-03,
       -1.25160012e-02, -4.97592287e-03, 8.76655616e-03, -7.19637470e-03,
       -1.20656118e-02, -4.27033100e-03, 9.07542091e-03, 2.99175573e-03,
       -2.94279610e-03, 1.20471895e-03, 1.35961678e-02, -1.04273297e-02,
       -7.70819420e-03, 4.31419304e-03, 1.05099268e-02, -4.49269870e-03,
       -3.38988146e-03, -2.59114499e-03, 4.79075359e-03, -6.54363865e-03,
       -8.01314320e-03, -6.47341320e-03, -1.39170827e-03,
       -9.03460896e-04, -5.34446852e-04, 8.78440042e-05, -5.67737687e-03,
       -6.34272071e-03, -2.47792318e-03, -1.74641167e-03,
       -5.21250535e-03, 3.18187266e-03, 8.79506208e-03, -5.09522995e-03,
       -1.21734070e-03, 5.80710964e-03, 2.55934969e-02, 1.09148612e-02,
       -4.67610592e-03, -9.53486096e-03, -3.55688506e-03,
       -3.94850317e-03, 4.23373887e-03, -5.89426979e-03, -1.72858462e-02,
       -9.68986470e-03, 6.77066995e-03, 2.20957119e-03, 2.49777013e-03,
       -3.28925060e-04, 2.47117155e-03, 8.41290317e-03, 1.19550470e-02,
       3.89181747e-04, 1.94310141e-03, -3.85115482e-03, -6.80651888e-03,
       -5.95060550e-03, 5.66102285e-03, -2.92219128e-03, -1.91828795e-02,
       -1.47085702e-02, 3.42763378e-03, 1.43861922e-03, 4.40626545e-03,
       -4.90835402e-03, 4.86824941e-03, 7.99714215e-03, 1.39085278e-02,
       2.24906136e-03, 2.14496139e-03, -1.53921545e-03, -2.14770297e-03,
       -3.34198237e-03, 2.60538352e-03, -1.42288478e-02, -1.50079746e-02,
       -1.35247894e-02, -9.63439059e-04, -1.49745075e-03,
       -5.07991342e-03, -1.42371701e-02, 7.33204477e-04, 9.57202073e-03,
       2.48307735e-03, -3.74860899e-03, -5.05975960e-03, -2.62966868e-03,
       3.41509725e-03, -3.32745980e-03, -9.33871884e-03, -7.63686746e-03,
       7.10707624e-03, -4.87613305e-03, -7.13819498e-03, -4.38033137e-03,
       1.66480374e-02, 3.17111891e-03, -5.59308520e-03, 4.47328994e-03,
       1.18027059e-02, -1.62062480e-03, -7.26463785e-03, -7.62784807e-03,
       -5.92459633e-04, -8.15467350e-03, -1.51226120e-02,
       -1.21468231e-02, -4.73136175e-03, -1.13669196e-02,
       -1.88221559e-02, 3.73110687e-03, 1.50278118e-02, -6.80415379e-03,
       -1.78577434e-02, 9.04401485e-03, 1.93434693e-02, -1.08311046e-02,
       -5.58845233e-03, -1.00759268e-02, -3.69053939e-03,
       -9.79554839e-03, -1.56455450e-02, -1.17980558e-02,
       -8.96668248e-03, -1.57926846e-02, -1.57882143e-02, 1.45987188e-02,
       1.04677016e-02, -1.67254619e-02, -9.70726460e-03, 1.38682248e-02,
       2.18206625e-02, -9.10733454e-03, -3.08479695e-03, -2.72433879e-03,
       -3.23572732e-03, -5.34406723e-03, -7.97051936e-03,
       -1.19300850e-03, -8.14083591e-03, -1.21367602e-02,
       -9.59277153e-03, 1.88128743e-02, 3.96997528e-03, -1.15440181e-02,
       -5.48815867e-03, 1.45326322e-02, 7.61212502e-03, -5.07807406e-03,
       -2.17476021e-03, -2.24891980e-03, 1.06141027e-02, 1.49721687e-03,
       -1.02079725e-02, 4.14533122e-03, 1.35788908e-02, -5.00223879e-03,
       -6.24617608e-03, -3.45551921e-03, 1.89275434e-03, -5.83003135e-03,
       -4.24205820e-04, -2.01660558e-03, -3.92058911e-03,
       -1.81451160e-03, -1.56355929e-02, 4.95859049e-03, 1.88128948e-02,
       -4.63632774e-03, -2.08744332e-02, 5.71178086e-03, 2.42739450e-02,
       -1.09800659e-02, -1.46024525e-02, -2.12399429e-03, 1.06855296e-03,
       -3.66921537e-03, -1.32986354e-02, -8.61516781e-03,
       -3.03407549e-03, -3.48919281e-03, -8.10697768e-03, 1.69129223e-02,
       1.36691555e-02, -6.59105042e-03, -1.79077983e-02, 1.32850073e-02,
       2.11978555e-02, -1.12937316e-02, -2.14844160e-02, -3.21338256e-03,
       -3.51074571e-03, -1.47397919e-02, -1.52023947e-02,
       -7.17691053e-03, -5.88553213e-03, 1.45856151e-03, -4.70352406e-03,
       1.67407710e-02, 8.96164309e-03, -3.34534934e-03, -1.08233569e-02,
       8.76102224e-03, 7.90305529e-03, -6.84478274e-03, -9.34880506e-03,
       -6.22273237e-03, -3.72659881e-03, -6.47017127e-03,
       -2.93607148e-03, -3.79356752e-05, -3.85320955e-03,
       -1.45921903e-03, -4.78662114e-04, -2.04853038e-03, 8.28330347e-04,
       1.30671705e-03, 1.00743922e-03, 4.03308496e-03, 1.04312068e-02,
       1.76128431e-03, -1.45322294e-03, 1.93180493e-03, 6.76028850e-03,
       -3.24851088e-03, -2.82823085e-03, 2.30393861e-03, 6.77446323e-03,
       -3.51980794e-03, 3.80138314e-04, -5.05074905e-03, -9.65946529e-04,
       1.97519106e-03, -1.02295838e-02, 1.34836859e-03, 1.82357915e-02,
       3.65689350e-03, -5.87675394e-03, 4.98304726e-04, 1.23067573e-02,
       -3.13484087e-03, -5.00152400e-03, -1.44937437e-03, 2.48730625e-03,
       -2.87744129e-04, -9.05452389e-03, -1.05578331e-02,
       -4.39956784e-03, -2.58910423e-03, -1.47979530e-02,
       -1.12706274e-02, 1.14241000e-02, 1.95103683e-04, -1.49152623e-02,
       -1.14267310e-02, 1.53429797e-02, 5.94941527e-03, -9.67022777e-03,
       -1.28926439e-02, 2.86939112e-03, 3.26316315e-03, -9.98350885e-03,
       -5.90129895e-03, -4.60828096e-03, -6.69169566e-03,
       -1.84577256e-02, -1.34282969e-02, 6.37623109e-03, -6.34853728e-03,
       -1.95161179e-02, -1.51346754e-02, 1.23725589e-02, 3.91449692e-04,
       -1.36631150e-02, -1.14087760e-02, 4.80985595e-03, 4.30010434e-04,
       -2.21566274e-03, 3.47916735e-03, 6.17812295e-03, -2.36676726e-03,
       -8.25834367e-03, 3.01126624e-03, 4.46443446e-03, -8.25505517e-03,
       -1.37851201e-02, 2.48871557e-03, 1.03707835e-02, -1.04582487e-02,
       -5.37156081e-03, -2.44843983e-03, -1.59831892e-03,
       -5.81484847e-03, -5.98908262e-03, 4.67997184e-03, 1.66180246e-02,
       -6.65876782e-04, -1.24213668e-02, -6.15791138e-03, 6.11325493e-03,
       -3.36691458e-03, -2.59250309e-02, -7.79529382e-03, 2.24954193e-03,
       -1.57104824e-02, -7.20731169e-03, -7.14759668e-03, 3.42125865e-03,
       -1.39819169e-02, -8.07733927e-03, -2.84466567e-03, 1.24073857e-02,
       5.62958466e-03, -1.57573167e-02, -1.81600712e-02, 7.05897110e-03,
       6.45395741e-03, -2.05625184e-02, -1.61388386e-02, 1.09314499e-02,
       -6.29998418e-03, -1.20093459e-02, -7.67265586e-03, 6.31017517e-03,
       -5.24287671e-03, -1.11512337e-02, -5.92620531e-03, 1.24950185e-02,
       7.25864572e-03, -1.21786064e-02, -1.52750975e-02, 9.63827781e-03,
       9.46423877e-03, -1.32690202e-02, -1.19708395e-02, -2.12905696e-03,
       -2.92311003e-03, -1.19225169e-02, -5.32940868e-03, 6.12373883e-03,
       1.52836647e-03, -2.52274866e-03, 2.84981937e-03, 5.34635689e-03,
       -2.04541371e-03, -2.77046487e-03, -5.36097633e-03,
       -9.46181547e-03, -8.87605455e-03, 2.50381161e-03, -1.71545311e-03,
       -8.68258160e-03, -9.12960898e-03, 7.18125200e-04, -3.76233528e-03,
       -3.66188143e-03, -1.88380468e-03, -7.62580102e-03, 3.18937469e-03,
       1.59428008e-02, -4.21216991e-03, 4.68522689e-04, -1.12786647e-02,
       -7.33356411e-03, -1.44247655e-02, 1.13758806e-03, -1.29344584e-02,
       -2.39423551e-02, -1.10286409e-02, 3.08939692e-04, -1.17143076e-02,
       -1.07366629e-02, -7.58272782e-03, -1.61138887e-03, 2.04215595e-03,
       2.51269452e-02, 1.35519719e-02, -1.29916351e-02, -1.10090394e-02,
       4.43078997e-03, 9.83145088e-03, -1.41549530e-02, -1.73553657e-02,
       -1.69455186e-02, -1.06900698e-02, -2.05172994e-03,
       -1.37119582e-02, -1.44545343e-02, -1.28536290e-02,
       -2.95894896e-03, 4.66388039e-04, 1.77191012e-02, 1.72216874e-02,
       -4.68777400e-03, -1.21302372e-02, 1.78758968e-02, 2.29601320e-02,
       -6.97405078e-03, -1.45318685e-02, 6.12325640e-03, 1.40024191e-02,
       -3.86043615e-03, -1.06792366e-02, -6.64495956e-03,
       -9.69167240e-03, 3.52090364e-03, 2.69163609e-03, -7.40133342e-04,
       -7.33036839e-04, 6.78138947e-03, -5.88481268e-03, -4.75568511e-03,
       2.56956046e-05, 4.79662931e-03, -6.23595808e-03, -5.14048152e-03,
       -3.07240570e-03, 2.60069943e-03, -5.66960080e-03, -5.46800531e-03,
       -1.99056114e-03, 9.99126676e-03, 8.73831799e-04, -3.57387261e-03,
       9.84094106e-04, 7.70862307e-03, -1.11866836e-02, -7.28059141e-03,
       4.72043874e-03, 1.95230567e-03, -4.50068573e-03, -8.66184011e-03,
       -8.87911487e-03, 7.30217958e-04, -9.99622140e-03, -1.27413170e-02,
       -1.19939428e-02, 7.86287151e-03, -2.96763587e-03, 2.86138244e-03,
       2.12905603e-03, 8.87505617e-03, -9.88163892e-03, -7.58138439e-03,
       6.72732573e-03, 1.17074335e-02, -4.17047460e-03, -9.32253059e-03,
       5.51507249e-03, 1.24634830e-02, -1.29952515e-03, -5.52302832e-03,
       -5.96866664e-03, 6.10163622e-03, -1.49174465e-03, 1.35064358e-02,
       1.54248392e-02, 2.09766310e-02, -1.03112645e-02, -7.15051778e-03,
       1.05681773e-02, 2.06015818e-02, -4.47193021e-03, -1.02880914e-02,
       2.54321680e-03, 1.28964949e-02, 1.16719427e-02, 1.85836770e-03,
       -5.97012555e-03, 7.73634412e-04, -2.56729987e-03, -2.13251263e-03,
       -1.00056175e-03, 3.43658286e-03, -9.53745004e-03, -6.21914631e-03,
       -6.30178861e-03, 9.77302203e-04, -7.79749686e-03, -1.60726334e-03,
       -7.01604923e-03, -7.20771903e-04, 6.53550844e-04, 1.50797144e-03,
       6.17389276e-04, -4.85991506e-04, -5.89909358e-03, -3.85501259e-03,
       -4.59918752e-03, -4.24220785e-03, -1.60605963e-02,
       -1.77445095e-02, -1.91478468e-02, -8.40910617e-03, 1.95649045e-04,
       -1.25945816e-02, -2.02270448e-02, -2.07500625e-03, 7.43913651e-03,
       -4.25436883e-04, -9.29142255e-03, 5.39055886e-03, -6.87278900e-03,
       -3.57292406e-03, -2.58277403e-03, 8.95311683e-03, -1.93040876e-04,
       -9.69857350e-03, -1.22809932e-02, 4.75254003e-03, 6.22198917e-03,
       -8.29422008e-03, -1.54091781e-02, 1.53411571e-02, 2.09367871e-02,
       2.19242740e-03, -8.07046797e-03, 4.49697021e-03, -3.10280826e-04,
       -3.30957072e-03, -7.09484518e-03, 6.88067637e-03, 1.16492361e-02,
       1.43204481e-04, -1.12328185e-02, 2.06644274e-02, 1.65421963e-02,
       5.34945633e-03, -6.59176754e-03, 2.12610196e-02, 2.49631256e-02,
       5.49329584e-03, -6.86601910e-04, -2.67055328e-03, -4.52510081e-03,
       -1.31270371e-03, -2.83349468e-03, -8.61417409e-03,
       -2.64804484e-03, -1.75998814e-03, -5.96324215e-03,
       -5.14246337e-03, 1.04596950e-02, 7.46810948e-03, -6.50814641e-03,
       -2.71398202e-03, 1.10487444e-02, 1.10250209e-02, -2.41529499e-03,
       -7.03827199e-03, -5.00993198e-03, -6.59000641e-03,
       -1.16464999e-02, -1.17767956e-02, -8.54842644e-03,
       -1.36743383e-02, -2.30664909e-02, -6.26581116e-03, 1.92355886e-02,
       5.53012080e-03, -2.14058347e-02, -1.01942113e-02, 2.30037551e-02,
       8.74320883e-03, -1.22966841e-02, 2.03332375e-03, -7.35102396e-04,
       -8.24269000e-03, -1.50480680e-02, 1.80684344e-03, 4.76827612e-03,
       -2.27074195e-02, -1.88864674e-02, 1.24526266e-02, 1.71972848e-02,
       -1.38939684e-02, -2.39643566e-02, -1.23380590e-02, 7.02124694e-03,
       4.83223354e-04, -1.67613253e-02, -4.23610385e-04, 4.60972631e-04,
       -2.19576037e-03, -5.99751947e-03, 8.91676545e-03, 9.21368971e-03,
       -8.64913408e-03, -9.15526412e-03, 5.00948960e-03, 1.33101875e-02,
       -1.38900746e-02, -8.40920862e-03, -1.90506305e-03, 7.00331992e-03,
       -4.05117078e-03, -5.58860879e-03, 5.52288548e-04, 1.96818467e-02,
       1.63262002e-02, -1.68342143e-03, -5.96797746e-03, 1.13184731e-02,
       1.47257159e-02, -2.14377488e-03, -1.06978584e-02, -5.04006166e-04,
       1.78157783e-03, -1.36832439e-03, -3.71047528e-03, -5.56590850e-04,
       -1.73071923e-03, 1.63878768e-03, 2.22764304e-03, 2.32901014e-02,
       1.57286022e-02, -7.77670322e-03, -7.78592564e-03, 2.18527243e-02,
       1.14346789e-02, -1.06971618e-02, -6.91116415e-03, -8.58029723e-03,
       -4.43665776e-03, -4.18508472e-03, -5.03336778e-03,
       -3.19873053e-03, -6.69134082e-03, -1.28142978e-03, 6.39622565e-03,
       2.05135141e-02, -4.16330528e-03, -1.14765922e-02, -1.42563805e-02,
       8.04386509e-04, -5.77957416e-03, -1.04564084e-02, -8.23032577e-03,
       -1.04777087e-02, -1.09407548e-02, -8.13164748e-03,
       -7.93777686e-03, -4.29330254e-03, -7.96953309e-03,
       -6.61675492e-03, -6.70598878e-04, 2.56206631e-03, -5.94640989e-03,
       -7.38064176e-04, -8.27397872e-03, 1.66228390e-04, -9.29705612e-03,
       -7.95325637e-03, -6.77850517e-03, 8.56282073e-04, -1.01474058e-02,
       -7.84531794e-03, -2.36620288e-03, -1.68547803e-03,
       -4.88406001e-03, -7.38036865e-03, 8.36645020e-04, -3.93738830e-03,
       -1.65474217e-03, 3.81224859e-03, 9.73976217e-04, -4.79982654e-03,
       1.51735898e-02, 9.04992409e-03, 1.75552897e-03, -3.88955441e-03,
       1.99627988e-02, 1.43759372e-02, -4.87423851e-04, -2.43936456e-03,
       1.58311054e-02, 1.30661568e-02, 1.16966013e-03, -9.40477196e-03,
       -4.74814977e-03, 6.03935076e-03, -5.78945270e-03, -1.83008909e-02,
       1.27743352e-02, 1.29034631e-02, -4.78660828e-03, -1.65811908e-02,
       1.49367889e-02, 2.06419323e-02, -8.95768590e-03, -1.16926944e-02,
       1.27881598e-02, 2.62204669e-02, -1.49158610e-03, -6.61929836e-03,
       3.73579911e-04, 1.12895519e-02, -7.44756963e-03, -7.47891003e-03,
       7.03313714e-03, 9.41125862e-03, -1.06013054e-02, -1.35798389e-02,
       1.01154810e-02, 9.62658785e-03, -1.51543748e-02, -1.18481638e-02,
       1.11738611e-02, 1.00880517e-02, -4.58093639e-03, -4.96285222e-03,
       -1.20873959e-03, 4.81508113e-03, -1.35972416e-02, -5.96173573e-03,
       2.77031725e-03, -1.00590696e-03, -1.00025199e-02, -6.74895616e-03,
       -2.64837639e-03, -5.61427791e-03, -7.70034036e-03,
       -4.87793563e-03, -5.41766593e-03, -6.23829709e-03,
       -5.09973790e-04, -3.03761056e-03, 3.27250385e-03, 2.32301932e-03,
       -2.23012175e-03, -9.35663935e-03, 8.35149642e-03, 9.74281318e-03,
       -4.27731639e-03, -4.90937149e-03, 1.76867619e-02, 7.98017066e-03,
       -4.78581432e-03, -1.32366689e-03, 1.49730286e-02, 1.51677150e-02,
       -9.04843397e-03, -8.47271830e-03, 8.51187669e-03, 7.42996531e-03,
       -8.12832359e-03, -1.78715736e-02, 8.42264574e-03, 2.49858741e-02,
       -2.28458364e-03, -1.54667040e-02, 4.92223585e-03, 1.43968668e-02,
       -1.24864560e-02, -8.19599628e-03, 1.23247132e-02, 6.61511766e-03,
       -1.19158318e-02, -6.53862674e-03, 5.84137579e-03, -5.72784978e-04,
       -1.80404503e-02, -1.16179129e-02, 1.35202324e-02, 7.33322650e-03,
       -1.14362761e-02, -7.79928314e-03, 4.89557581e-03, 1.41810216e-02,
       -9.03358590e-03, -1.01422947e-02, -3.13751865e-03, 1.18487496e-02,
       -6.08131383e-03, -9.85249528e-04, 3.66841501e-04, -6.10333774e-03,
       -1.60343889e-02, -5.39456913e-03, -2.41334573e-03,
       -8.06717202e-03, -1.39070004e-02, -4.79994155e-03, 8.85685222e-05,
       4.40521864e-03, -5.18588163e-03, -5.17436676e-03, 7.20655546e-04,
       3.31122125e-03, -2.74024275e-03, -1.92284235e-03, 5.29170455e-03,
       1.06757216e-03, -6.72922563e-03, -8.79653357e-03, 8.15114006e-03,
       2.21027154e-03, -7.18762260e-03, -9.77794733e-03, -5.88612957e-03,
       -8.58638156e-03, -3.28027434e-03, -4.93260799e-03,
       -3.96125996e-03, -6.20430103e-03, -8.99298862e-03,
       -6.88858889e-03, -2.62495177e-03, 3.28647933e-04, -1.72751229e-02,
       -2.17281599e-02, 6.82767667e-03, 8.28467496e-03, -1.79875065e-02,
       -2.25381479e-02, 3.99475079e-03, 7.63323437e-03, -8.12413543e-03,
       -1.39931934e-02, -7.30496366e-03, -1.42010616e-03,
       -9.06562991e-03, -7.79330032e-03, 8.30626022e-03, 1.60554517e-02,
       -1.69745870e-02, -2.02591121e-02, -3.60187772e-03, 1.27992118e-02,
       -1.28970677e-02, -1.76778156e-02, -2.63355486e-03, 1.97412968e-02,
       -2.86235730e-03, -1.43537866e-02, -5.72577678e-03, 1.45419044e-02,
       -6.54306449e-03, -3.85183864e-03, 4.20934940e-03, 8.69292486e-03,
       -7.23814359e-03, -1.23717645e-02, 5.71471453e-03, 5.83970826e-03,
       -2.66211294e-03, -1.21528404e-02, -5.14812255e-03, 7.04247924e-03,
       -3.41315544e-03, -6.48350595e-03, -3.68521176e-03, 3.57560581e-03,
       -2.46932008e-03, -3.43071064e-03, -1.96033320e-03,
       -3.46231717e-03, -3.56177846e-03, -1.06920321e-02,
       -9.57462285e-03, -9.91516188e-03, -4.27333685e-03,
       -1.34854568e-02, -1.02073420e-02, -1.30530382e-02,
       -2.57341168e-03, -4.04112739e-03, -3.89105920e-03,
       -6.83644647e-03, -5.75180352e-03, -8.61693826e-03, 1.42965093e-03,
       1.04168030e-02, -3.50414729e-03, -2.38111392e-02, -1.80375297e-02,
       5.95610775e-03, -4.28479398e-03, -1.89880151e-02, -2.42000259e-02,
       -1.31608555e-02, -7.57581030e-04, -6.49243593e-03,
       -1.05530191e-02, -1.71043109e-02, -5.70708071e-04,
       -9.12110694e-03, 3.27748200e-03, 2.44250279e-02, 6.46760734e-03,
       -2.29672063e-02, -1.34655973e-02, 1.70732345e-02, 1.64707135e-02,
       -1.42425802e-02, -1.89098753e-02, 9.20738280e-03, 1.91613976e-02,
       -5.97525993e-03, -8.68807361e-03, 1.96671346e-03, 2.51110061e-03,
       -3.70323798e-03, 6.39387581e-04, 1.58037990e-02, 8.43157060e-03,
       -1.31119434e-02, -7.53230322e-03, 1.25751663e-02, 1.18322466e-02,
       -9.31281876e-03, -7.49977445e-03, 1.06050028e-02, 1.27021614e-02,
       -3.53579363e-03, -1.43253175e-03, 2.02730228e-03, -2.10071425e-03,
       -4.07376932e-03, -2.50041974e-03, -4.04834887e-03,
       -2.59123603e-03, -5.26404241e-03, -6.18770206e-03,
       -1.14072245e-02, -1.23543618e-03, -2.10983749e-03,
       -6.96099643e-03, -1.34300543e-02, -2.21135071e-03,
       -7.22661032e-04, -3.77440569e-03, -5.16500277e-03,
       -2.00254173e-04, -7.16247875e-03, -7.80678960e-03,
       -1.20916348e-02, -4.15870547e-03, -4.26146016e-03,
       -1.11897122e-02, -1.91601608e-02, 3.06417560e-03, -5.32836420e-04,
       -5.27743902e-03, -2.04394050e-02, 1.04037607e-02, 4.48568584e-03,
       -4.09873202e-03, -1.42125674e-02, 1.15903178e-02, -6.80469116e-03,
       -5.63450856e-03, 6.24890765e-03, 1.22360177e-02, 1.45800039e-03,
       -1.28332255e-02, -7.16497889e-03, 1.54241100e-02, 7.59948324e-03,
       -7.13970466e-03, -1.24160051e-02, 2.20328383e-02, 2.88136583e-03,
       -3.27347545e-03, -1.36284474e-02, 2.93849013e-03, -3.03427270e-03,
       -1.96024473e-03, 1.33131456e-03, 1.24543188e-02, -3.39067751e-03,
       -3.63419158e-03, -5.84813813e-03, 8.63476004e-03, 3.29629960e-03,
       -1.90511637e-03, -1.05576897e-02, 1.43410191e-02, 6.03155605e-03,
       6.96950592e-04, -8.67769681e-03, 1.34816521e-03, 3.11393500e-03,
       -2.68164836e-03, -4.85156942e-03, 6.29171077e-03, 9.49079078e-03,
       -7.88743049e-03, -5.80353662e-03, 6.84866216e-03, 1.98428128e-02,
       -1.04064345e-02, -8.72446503e-03, -5.14573324e-03, 6.48726011e-04,
       -3.69131449e-03, -5.34215989e-03, 7.05177244e-03, 5.12198592e-03,
       -1.81660801e-03, -1.11661563e-02, 8.88118148e-03, 1.07906284e-02,
       -9.95401293e-03, -1.58612709e-02, 9.47715808e-03, 1.64991319e-02,
       -1.49468519e-02, -1.42946178e-02, -2.46825186e-03, 2.06241850e-03,
       -1.08581269e-02, -8.44741613e-03, 1.73505209e-02, -2.02489668e-03,
       -9.77797201e-04, -1.08071920e-02, 1.24533065e-02, 2.14984897e-03,
       -7.87527673e-03, -1.64769813e-02, -2.63386918e-03, 5.12466114e-03,
       -1.05051287e-02, -1.67207997e-02, -8.97810038e-04,
       -2.59288843e-03, -5.67998597e-03, -1.01541923e-02, 2.26941123e-03,
       -1.18640100e-03, -6.44585525e-04, -8.04695487e-03, 4.94176941e-03,
       -6.28614507e-04, -5.13866253e-04, -1.26093561e-02,
       -1.05601735e-02, -2.40615592e-03, -4.02622996e-03,
       -1.55170541e-02, -5.26594929e-03, 3.95454146e-04, -2.85306084e-03,
       -1.12281870e-02, 9.92649235e-03, 2.39736699e-02, -2.41789594e-03,
       -1.60780200e-03, -3.58339050e-03, 4.19745082e-03, -2.35808920e-03,
       -1.34771864e-03, -3.11030052e-03, 5.25537133e-03, -2.65987078e-03,
       -1.24875805e-03, -1.43515994e-03, 9.21882049e-04, -1.88376545e-03,
       3.92205082e-04, 1.11874798e-02, 1.51813235e-02, -3.28465085e-03,
       -7.58878668e-05, 8.72749556e-03, 1.31933950e-02, -1.21475086e-02,
       -6.66315807e-03, 4.50039376e-03, 8.37413501e-03, -2.43272609e-03,
       -2.30739499e-03, -1.75907428e-03, 1.54717022e-03, -4.48410492e-03,
       -5.50458860e-03, 7.27434270e-03, 8.62183329e-03, 7.73674983e-04,
       2.36753374e-03, 2.94329179e-03, -2.23150640e-03, -5.98298851e-03,
       -7.25753780e-04, -1.17050996e-03, 1.81257154e-03, -6.29973598e-03,
       -6.71750959e-03, -2.04133918e-04, -5.63516887e-03,
       -2.19778321e-03, -8.02154839e-03, -4.14124969e-03, 1.15827436e-03,
       3.22264736e-04, -7.30448915e-03, -7.49245798e-03, -1.57121022e-03,
       -2.43547349e-03, -6.29397156e-03, -1.15379998e-02,
       -5.32579701e-03, 1.28625194e-04, -8.34697112e-03, -8.68533552e-03,
       -4.29670839e-03, -1.06787530e-03, -8.08032230e-03, 2.86417082e-03,
       -1.97585346e-03, 2.48884130e-03, 1.02141146e-02, 2.75376206e-03,
       1.92104094e-03, 9.01905727e-03, 1.21461991e-02, -5.54280763e-04,
       -2.21543782e-03, 9.16708354e-03, 1.27580194e-02, -2.96410944e-05,
       -2.25193379e-03, 6.26662420e-03, 1.06101856e-02, 1.86864077e-03,
       -5.36206271e-03, 5.09079428e-06, 1.03317695e-02, 2.25531543e-03,
       -3.21398093e-03, 1.49859749e-02, 1.23630734e-02, 1.15169296e-02,
       -4.16593533e-03, 8.92532617e-03, 2.09779348e-02, 4.51218942e-03,
       5.67244861e-05, -1.99285964e-03, 1.34946697e-03, 5.26419096e-03,
       -6.84350310e-03, -6.30767364e-03, 1.26476455e-02, 5.39050857e-03,
       -9.99544188e-03, -1.21386221e-03, 1.60878878e-02, 3.68784089e-03,
       -1.54348435e-02, 2.75990134e-03, 2.13441998e-02, 3.83628579e-03,
       -7.29798432e-03, -8.26276653e-03, 8.56852345e-03, -1.40260800e-03,
       -4.30994341e-03, -7.93917628e-04, 7.36002810e-04, -8.37645121e-03,
       -6.82684034e-03, -8.17964494e-04, -6.52727764e-03,
       -1.03639960e-02, -1.18668890e-02, -5.15734078e-03,
       -6.90260530e-03, -7.89415929e-03, -6.33335719e-03,
       -2.17798608e-03, -3.30775580e-03, -1.86868571e-03,
       -1.00558515e-04, 3.22913728e-03, 2.08337675e-03, -1.10157370e-03,
       1.49181357e-03, 9.17406566e-03, 1.43196061e-02, 3.84955131e-03,
       2.74852570e-03, 2.07802542e-02, 2.58553028e-02, 4.98197088e-03,
       -3.69419996e-03, 5.92069747e-03, 1.94747690e-02, 1.91931555e-03,
       2.11042599e-04, 2.61452951e-04, 1.79269165e-03, -3.88225133e-04,
       2.96863774e-03, 4.13309457e-03, -2.08571786e-03, -2.26628850e-03,
       3.41301528e-03, 1.39015131e-02, 9.98269860e-03, 2.44941632e-03,
       -5.51014720e-03, 1.20002842e-02, 1.82266440e-02, -2.01960982e-04,
       -9.31008067e-03, -2.59414921e-03, 1.11109205e-02, -7.62419961e-03,
       4.63568547e-04, -5.76743996e-03, -6.56171283e-03, -1.40139647e-02,
       1.18460483e-03, -2.17801961e-03, -9.43471864e-03, -9.98092908e-03,
       -1.02081681e-02, -1.95316481e-03, 2.68672383e-03, -6.75097620e-03,
       -4.50684037e-03, -1.79770705e-03, -5.14015183e-03,
       -1.62733812e-02, -3.14451777e-03, -1.20647554e-03,
       -1.09400162e-02, -1.49464570e-02, -1.04636429e-02,
       -2.60517793e-03, -1.26767466e-02, -7.95564614e-03,
       -5.58432657e-03, -4.93397098e-03, -6.68394892e-03, 8.85960704e-04,
       -1.51554437e-03, 2.67579989e-03, 1.14189088e-02, 1.06175542e-02,
       -8.50393530e-03, -3.61562520e-03, 1.82192195e-02, 1.26513606e-02,
       -7.98122305e-03, 2.66928156e-03, 2.68624127e-02, 1.02511756e-02,
       -4.29394888e-03, 4.09249635e-03, 2.22217832e-02, -4.45369678e-03,
       -2.26872042e-03, -2.92536919e-03, 8.01363867e-03, 5.31500950e-03,
       -1.45267071e-02, 2.26248079e-03, 1.90204289e-02, 1.11773377e-02,
       -1.12021510e-02, -3.19127250e-03, 2.43394747e-02, 3.46166431e-03,
       -5.58767421e-03, -2.63697188e-03, 1.32148750e-02, -1.08019309e-02,
       -7.22381845e-03, -5.43072168e-03, -7.82814994e-03,
       -1.06443036e-02, -1.44809531e-02, -9.38062370e-03, 1.83094526e-03,
       -3.45110870e-03, -1.05091110e-02, -5.41923754e-03, 3.46545479e-03,
       -1.27034914e-03, -7.08853360e-03, -6.25968911e-03, 6.89616613e-03,
       -6.79355487e-03, -5.87435206e-03, -2.37982743e-03,
       -7.23155867e-03, -1.59870051e-02, -8.65970179e-03,
       -9.03450977e-03, -1.57179777e-02, -1.54925445e-02,
       -5.52156335e-03, -3.51562700e-03, -1.27334688e-02,
       -8.73918273e-03, -7.39168748e-03, -3.73926433e-03,
       -5.56730852e-03, 2.81094038e-03, -3.28713143e-03, 2.71944213e-04,
       1.25940172e-02, 1.70806311e-02, -1.02042314e-02, -4.41338634e-03,
       1.86059009e-02, 2.03409772e-02, -9.59165674e-03, -6.89463364e-03,
       1.58372354e-02, 2.44497992e-02, -1.25309126e-03, -8.63333931e-04,
       1.37275429e-02, -2.68328236e-04, -6.71053817e-03, -3.37442337e-03,
       1.23315193e-02, 9.73635688e-05, -1.60082020e-02, -1.47992000e-02,
       1.06212785e-02, 5.10187354e-03, -1.59192458e-02, -1.09970579e-02,
       8.72715842e-03, 4.23436100e-03, -5.17565012e-03, 1.29518821e-03,
       -3.25060356e-03, -5.46542183e-03, -5.84229967e-03,
       -4.47144918e-03, 4.67095850e-03, -1.20408554e-03, -1.60191990e-02,
       -1.78785138e-02, -8.12258397e-04, 1.33423996e-03, -1.49902971e-02,
       -1.33241210e-02, -1.28381862e-03, 1.07683544e-03, -5.30663319e-03,
       6.42940460e-04, -6.26160414e-04, -1.03699118e-02, -2.58884090e-03,
       -1.41684292e-03, -9.32173990e-03, -1.43476678e-02,
       -1.50737548e-02, -1.30505720e-02, -9.41053312e-03,
       -1.34828752e-02, -1.28007475e-02, -9.50136967e-03,
       -9.65992082e-03, -6.13096869e-03, -2.83583789e-03,
       -3.94070987e-04, -6.42038696e-03, 1.88326612e-02, -2.61885440e-03,
       -5.66127652e-04, 1.84627622e-02, 2.03791521e-02, 4.97048674e-03,
       5.90458454e-04, 6.04809215e-03, 1.76484995e-02, 1.30909681e-03,
       5.96598620e-05, 2.26575485e-03, 8.23270623e-03, -3.87610402e-03,
       -5.01673436e-04, -8.84417968e-04, 1.14811264e-05, -6.37352793e-03,
       -8.47867865e-04, 3.24798864e-03, 4.43169801e-03, -2.72347499e-03,
       9.68047709e-04, -6.13329653e-03, 8.50886048e-04, -5.60987915e-04,
       -6.20369054e-03, -1.13932015e-02, 5.37066814e-03, -6.20827777e-03,
       -4.85592429e-03, -1.29805775e-02, 2.34789820e-03, -6.22682506e-03,
       -2.22598831e-03, -8.58213753e-04, -3.33175110e-03,
       -7.67539255e-03, -1.36386941e-03, -2.06169323e-03,
       -1.97002944e-03, -1.18756760e-02, -1.05923098e-02,
       -1.55035472e-02, 3.75897420e-04, -1.16190333e-02, -7.95250013e-03,
       -1.59525685e-02, -5.14777005e-03, -3.64789413e-03,
       -2.14181677e-03, -5.16188098e-03, -1.30489711e-02,
       -2.22440762e-03, -1.15851604e-03, -9.74414404e-03,
       -9.25990473e-03, -8.10353924e-03, -1.12986462e-02,
       -1.47681851e-02, -7.95721170e-03, -6.20339904e-03,
       -3.81970662e-03, -4.54611843e-03, 2.06123404e-02, 2.80242786e-03,
       1.74175273e-03, 3.99875827e-03, 2.37860028e-02, 5.62604098e-03,
       1.16672623e-03, 5.72197186e-03, 1.00292787e-02, 6.60251593e-03,
       -6.03699940e-04, 2.35020462e-03, 8.15370993e-04, -1.41245895e-04,
       -1.03286700e-03, 1.99520626e-04, 1.13555165e-02, 4.52033198e-03,
       3.46886576e-04, -5.07464446e-03, 6.41601952e-03, 5.61320223e-04,
       5.74484235e-04, -4.36695613e-04, -5.08368714e-03, 3.18324286e-03,
       1.09298481e-03, -7.55799701e-03, -5.19467983e-03, -2.89936294e-03,
       -4.16736212e-03, -8.27509817e-03, 8.56741145e-03, -2.40236893e-03,
       2.21631926e-04, -5.79258939e-03, 7.30800792e-04, -7.49174971e-03,
       -1.65981916e-03, -1.20306900e-02, -1.73244730e-03,
       -2.44134408e-03, -1.00319870e-02, -1.13957804e-02,
       -1.42757373e-03, -4.99530369e-03, -5.78271691e-03,
       -1.02805542e-02, -2.82569602e-03, -7.85787241e-04,
       -1.15885632e-03, -4.18464327e-03, -1.04965074e-02,
       -8.48674495e-03, 3.52414878e-04, -6.94946502e-04, -1.36720119e-02,
       -1.07822539e-02, -5.36689628e-03, 1.52989058e-03, -4.05868981e-03,
       -7.62522686e-03, -4.21540067e-03, 1.31164992e-03, 1.11611532e-02,
       8.64213333e-03, 1.70217268e-03, 3.66207818e-03, 1.13391140e-02,
       5.48959570e-03, 1.41879020e-03, 3.85006447e-03, 8.61560646e-03,
       4.12014732e-03, -1.99940777e-03, 1.63091545e-03, 1.97611889e-03,
       -3.56478198e-03, -2.41366029e-03, -2.30310531e-03, 3.23432242e-03,
       7.65274651e-03, 1.93770404e-03, -3.47405439e-03, 8.00868310e-03,
       7.49280769e-03, -5.32602984e-03, -4.08700015e-03, -1.34127215e-03,
       -7.89850892e-04, 3.17866309e-03, -3.67882987e-03, -5.03691286e-03,
       -8.98380391e-03, -4.88152215e-03, -7.70476554e-03, 4.81794495e-03,
       -9.16320831e-04, -2.90949945e-03, -3.65265249e-03, 5.91505365e-03,
       -1.58304407e-04, -6.33224379e-03, -1.38964423e-03, 1.73832639e-04,
       2.47590081e-03, -2.28607655e-03, -7.57699367e-04, 1.19744346e-03,
       -8.73969216e-03, -7.62827694e-04, -4.62833093e-03,
       -3.78407282e-03, -4.37785173e-03, -2.64769932e-03, 2.35637906e-03,
       -1.02454913e-03, -1.40624866e-02, -4.54022549e-03, 7.89650716e-03,
       1.04682450e-03, -8.60746577e-03, -2.64752423e-03, 5.47207240e-03,
       -1.84228329e-03, -1.81064743e-03, -2.45197141e-03, 1.28751039e-03,
       -2.77410150e-02 ]
